digraph Tree {
node [shape=box, style="filled, rounded", color="black", fontname="helvetica"] ;
edge [fontname="helvetica"] ;
0 [label="등락률 <= -0.057\ngini = 0.467\nsamples = 55\nvalue = [33, 56]\nclass = 1", fillcolor="#aed7f4"] ;
1 [label="소비자물가지수 <= -0.001\ngini = 0.271\nsamples = 20\nvalue = [26, 5]\nclass = 0", fillcolor="#ea995f"] ;
0 -> 1 [labeldistance=2.5, labelangle=45, headlabel="True"] ;
2 [label="gini = 0.5\nsamples = 4\nvalue = [3, 3]\nclass = 0", fillcolor="#ffffff"] ;
1 -> 2 ;
3 [label="gini = 0.147\nsamples = 16\nvalue = [23, 2]\nclass = 0", fillcolor="#e78c4a"] ;
1 -> 3 ;
4 [label="날짜 <= 201805.5\ngini = 0.212\nsamples = 35\nvalue = [7, 51]\nclass = 1", fillcolor="#54aae9"] ;
0 -> 4 [labeldistance=2.5, labelangle=-45, headlabel="False"] ;
5 [label="gini = 0.0\nsamples = 23\nvalue = [0, 37]\nclass = 1", fillcolor="#399de5"] ;
4 -> 5 ;
6 [label="gini = 0.444\nsamples = 12\nvalue = [7, 14]\nclass = 1", fillcolor="#9ccef2"] ;
4 -> 6 ;
}